<?xml version="1.0"?>
<opencv_storage>
<cascade>
  <stageType>BOOST</stageType>
  <featureType>HAAR</featureType>
  <height>30</height>
  <width>20</width>
  <stageParams>
    <boostType>GAB</boostType>
    <minHitRate>9.9500000476837158e-01</minHitRate>
    <maxFalseAlarm>5.0000000000000000e-01</maxFalseAlarm>
    <weightTrimRate>9.4999998807907104e-01</weightTrimRate>
    <maxDepth>1</maxDepth>
    <maxWeakCount>100</maxWeakCount></stageParams>
  <featureParams>
    <maxCatCount>0</maxCatCount>
    <featSize>1</featSize>
    <mode>BASIC</mode></featureParams>
  <stageNum>25</stageNum>
  <stages>
    <!-- stage 0 -->
    <_>
      <maxWeakCount>9</maxWeakCount>
      <stageThreshold>-1.2566938400268555e+00</stageThreshold>
      <weakClassifiers>
        <_>
          <internalNodes>
            0 -1 541 6.4523324370384216e-02</internalNodes>
          <leafValues>
            -5.8703070878982544e-01 7.7952754497528076e-01</leafValues></_>
        <_>
          <internalNodes>
            0 -1 5 -1.3741250336170197e-01</internalNodes>
          <leafValues>
            7.6241332292556763e-01 -3.3317852020263672e-01</leafValues></_>
        <_>
          <internalNodes>
            0 -1 461 2.9093818739056587e-03</internalNodes>
          <leafValues>
            2.5191786885261536e-01 -7.1447402238845825e-01</leafValues></_>
        <_>
          <internalNodes>
            0 -1 159 -4.3519355356693268e-02</internalNodes>
          <leafValues>
            5.6278884410858154e-01 -2.6770815253257751e-01</leafValues></_>
        <_>
          <internalNodes>
            0 -1 540 7.1529388427734375e-02</internalNodes>
          <leafValues>
            -2.3168900609016418e-01 6.5435647964477539e-01</leafValues></_>
        <_>
          <internalNodes>
            0 -1 491 -6.6063599660992622e-04</internalNodes>
          <leafValues>
            -6.4258199930191040e-01 2.8495654463768005e-01</leafValues></_>
        <_>
          <internalNodes>
            0 -1 27 -5.9097293764352798e-02</internalNodes>
          <leafValues>
            5.3738248348236084e-01 -2.9654219746589661e-01</leafValues></_>
        <_>
          <internalNodes>
            0 -1 161 -9.3517601490020752e-02</internalNodes>
          <leafValues>
            6.7873710393905640e-01 -2.0931321382522583e-01</leafValues></_>
        <_>
          <internalNodes>
            0 -1 660 -3.0797158251516521e-04</internalNodes>
          <leafValues>
            -6.1430400609970093e-01 2.2893512248992920e-01</leafValues></_></weakClassifiers></_>
    <!-- stage 1 -->
    <_>
      <maxWeakCount>13</maxWeakCount>
      <stageThreshold>-1.5277726650238037e+00</stageThreshold>
      <weakClassifiers>
        <_>
          <internalNodes>
            0 -1 484 5.9584796428680420e-02</internalNodes>
          <leafValues>
            -5.9389895200729370e-01 5.6728231906890869e-01</leafValues></_>
        <_>
          <internalNodes>
            0 -1 15 -1.0375656187534332e-01</internalNodes>
          <leafValues>
            5.8718198537826538e-01 -3.6436286568641663e-01</leafValues></_>
        <_>
          <internalNodes>
            0 -1 6 4.7140821814537048e-02</internalNodes>
          <leafValues>
            -1.6368277370929718e-01 6.5707284212112427e-01</leafValues></_>
        <_>
          <internalNodes>
            0 -1 113 -1.0226142406463623e-01</internalNodes>
          <leafValues>
            6.8145602941513062e-01 -1.6037915647029877e-01</leafValues></_>
        <_>
          <internalNodes>
            0 -1 191 -8.9956723153591156e-02</internalNodes>
          <leafValues>
            5.1161015033721924e-01 -2.4859848618507385e-01</leafValues></_>
        <_>
          <internalNodes>
            0 -1 367 -1.5450990200042725e-01</internalNodes>
          <leafValues>
            7.6464557647705078e-01 -1.2395177781581879e-01</leafValues></_>
        <_>
          <internalNodes>
            0 -1 3 -1.5144087374210358e-02</internalNodes>
          <leafValues>
            4.1845628619194031e-01 -2.6746541261672974e-01</leafValues></_>
        <_>
          <internalNodes>
            0 -1 466 -1.0908767580986023e-03</internalNodes>
          <leafValues>
            -5.3221178054809570e-01 1.9650122523307800e-01</leafValues></_>
        <_>
          <internalNodes>
            0 -1 98 1.2883533490821719e-03</internalNodes>
          <leafValues>
            9.2683970928192139e-02 -8.6557513475418091e-01</leafValues></_>
        <_>
          <internalNodes>
            0 -1 98 -5.8454432291910052e-04</internalNodes>
          <leafValues>
            -5.9545469284057617e-01 1.5402673184871674e-01</leafValues></_>
        <_>
          <internalNodes>
            0 -1 457 9.2122273053973913e-04</internalNodes>
          <leafValues>
            1.7048536241054535e-01 -5.1291632652282715e-01</leafValues></_>
        <_>
          <internalNodes>
            0 -1 357 -4.2452039197087288e-03</internalNodes>
          <leafValues>
            4.3015465140342712e-01 -2.4273674190044403e-01</leafValues></_>
        <_>
          <internalNodes>
            0 -1 602 2.3363441228866577e-02</internalNodes>
          <leafValues>
            -1.7845717072486877e-01 4.6389591693878174e-01</leafValues></_></weakClassifiers></_>
    <!-- stage 2 -->
    <_>
      <maxWeakCount>15</maxWeakCount>
      <stageThreshold>-1.2404540777206421e+00</stageThreshold>
      <weakClassifiers>
        <_>
          <internalNodes>
            0 -1 604 3.3970206975936890e-02</internalNodes>
          <leafValues>
            -4.8104956746101379e-01 3.8817480206489563e-01</leafValues></_>
        <_>
          <internalNodes>
            0 -1 16 -1.3930287957191467e-01</internalNodes>
          <leafValues>
            4.5277556777000427e-01 -3.0946278572082520e-01</leafValues></_>
        <_>
          <internalNodes>
            0 -1 663 -2.3267947835847735e-04</internalNodes>
          <leafValues>
            -6.2251824140548706e-01 1.8465678393840790e-01</leafValues></_>
        <_>
          <internalNodes>
            0 -1 397 -3.4990306012332439e-03</internalNodes>
          <leafValues>
            4.8856505751609802e-01 -2.1046245098114014e-01</leafValues></_>
        <_>
          <internalNodes>
            0 -1 107 -2.2683662176132202e-01</internalNodes>
          <leafValues>
            4.2170044779777527e-01 -2.2504681348800659e-01</leafValues></_>
        <_>
          <internalNodes>
            0 -1 328 -1.8780410289764404e-01</internalNodes>
          <leafValues>
            7.1199822425842285e-01 -2.4329644441604614e-01</leafValues></_>
        <_>
          <internalNodes>
            0 -1 97 2.0022971148137003e-04</internalNodes>
          <leafValues>
            2.0933699607849121e-01 -4.6103724837303162e-01</leafValues></_>
        <_>
          <internalNodes>
            0 -1 375 7.1270433254539967e-03</internalNodes>
          <leafValues>
            9.1366350650787354e-02 -6.9973897933959961e-01</leafValues></_>
        <_>
          <internalNodes>
            0 -1 657 -4.1901570511981845e-04</internalNodes>
          <leafValues>
            -6.3992422819137573e-01 9.4000458717346191e-02</leafValues></_>
        <_>
          <internalNodes>
            0 -1 452 -5.7784202508628368e-03</internalNodes>
          <leafValues>
            3.6168479919433594e-01 -2.0323261618614197e-01</leafValues></_>
        <_>
          <internalNodes>
            0 -1 30 -9.7852591425180435e-03</internalNodes>
          <leafValues>
            2.6741299033164978e-01 -2.5751847028732300e-01</leafValues></_>
        <_>
          <internalNodes>
            0 -1 454 4.5475200749933720e-03</internalNodes>
          <leafValues>
            -1.7766050994396210e-01 3.8670000433921814e-01</leafValues></_>
        <_>
          <internalNodes>
            0 -1 444 4.3904813937842846e-03</internalNodes>
          <leafValues>
            -1.0585731267929077e-01 7.8115677833557129e-01</leafValues></_>
        <_>
          <internalNodes>
            0 -1 646 -9.1874063946306705e-04</internalNodes>
          <leafValues>
            -4.4852030277252197e-01 1.9431874155998230e-01</leafValues></_>
        <_>
          <internalNodes>
            0 -1 347 -3.4527720417827368e-03</internalNodes>
          <leafValues>
            -5.2541267871856689e-01 1.0189703851938248e-01</leafValues></_></weakClassifiers></_>
    <!-- stage 3 -->
    <_>
      <maxWeakCount>16</maxWeakCount>
      <stageThreshold>-1.2784645557403564e+00</stageThreshold>
      <weakClassifiers>
        <_>
          <internalNodes>
            0 -1 512 -5.3443949669599533e-02</internalNodes>
          <leafValues>
            6.0262006521224976e-01 -3.4766492247581482e-01</leafValues></_>
        <_>
          <internalNodes>
            0 -1 65 -7.1224473416805267e-02</internalNodes>
          <leafValues>
            4.4101810455322266e-01 -2.8590565919876099e-01</leafValues></_>
        <_>
          <internalNodes>
            0 -1 160 2.7511257678270340e-02</internalNodes>
          <leafValues>
            -2.3756022751331329e-01 4.7428217530250549e-01</leafValues></_>
        <_>
          <internalNodes>
            0 -1 661 -3.3900229027494788e-04</internalNodes>
          <leafValues>
            -5.7951301336288452e-01 2.0096488296985626e-01</leafValues></_>
        <_>
          <internalNodes>
            0 -1 253 1.0590483434498310e-03</internalNodes>
          <leafValues>
            1.8769529461860657e-01 -5.2577131986618042e-01</leafValues></_>
        <_>
          <internalNodes>
            0 -1 335 -2.0028635859489441e-02</internalNodes>
          <leafValues>
            3.3576151728630066e-01 -2.6644250750541687e-01</leafValues></_>
        <_>
          <internalNodes>
            0 -1 417 -3.2262079184874892e-04</internalNodes>
          <leafValues>
            -4.6928352117538452e-01 1.6703535616397858e-01</leafValues></_>
        <_>
          <internalNodes>
            0 -1 416 1.8820239347405732e-04</internalNodes>
          <leafValues>
            1.9142241775989532e-01 -4.3789464235305786e-01</leafValues></_>
        <_>
          <internalNodes>
            0 -1 285 -7.1689067408442497e-03</internalNodes>
          <leafValues>
            4.4051694869995117e-01 -1.8859256803989410e-01</leafValues></_>
        <_>
          <internalNodes>
            0 -1 544 8.4879964590072632e-02</internalNodes>
          <leafValues>
            -1.7381513118743896e-01 5.6852120161056519e-01</leafValues></_>
        <_>
          <internalNodes>
            0 -1 83 1.0229249019175768e-03</internalNodes>
          <leafValues>
            1.3893452286720276e-01 -6.9728308916091919e-01</leafValues></_>
        <_>
          <internalNodes>
            0 -1 24 -1.2833381770178676e-03</internalNodes>
          <leafValues>
            -6.1328560113906860e-01 1.2460619956254959e-01</leafValues></_>
        <_>
          <internalNodes>
            0 -1 24 1.4619393041357398e-03</internalNodes>
          <leafValues>
            1.5495125949382782e-01 -5.2426081895828247e-01</leafValues></_>
        <_>
          <internalNodes>
            0 -1 77 -4.0672998875379562e-04</internalNodes>
          <leafValues>
            -4.2726707458496094e-01 1.6155679523944855e-01</leafValues></_>
        <_>
          <internalNodes>
            0 -1 451 2.7594424784183502e-02</internalNodes>
          <leafValues>
            -2.5360655784606934e-01 2.9060691595077515e-01</leafValues></_>
        <_>
          <internalNodes>
            0 -1 462 1.6614049673080444e-03</internalNodes>
          <leafValues>
            1.2058122456073761e-01 -6.1394757032394409e-01</leafValues></_></weakClassifiers></_>
    <!-- stage 4 -->
    <_>
      <maxWeakCount>19</maxWeakCount>
      <stageThreshold>-1.0673104524612427e+00</stageThreshold>
      <weakClassifiers>
        <_>
          <internalNodes>
            0 -1 51 -4.8495456576347351e-02</internalNodes>
          <leafValues>
            3.3174791932106018e-01 -4.8861283063888550e-01</leafValues></_>
        <_>
          <internalNodes>
            0 -1 193 1.0053899139165878e-02</internalNodes>
          <leafValues>
            -3.0336070060729980e-01 4.6365481615066528e-01</leafValues></_>
        <_>
          <internalNodes>
            0 -1 559 2.8414256870746613e-02</internalNodes>
          <leafValues>
            -1.8857647478580475e-01 5.4333323240280151e-01</leafValues></_>
        <_>
          <internalNodes>
            0 -1 542 -3.0414517968893051e-02</internalNodes>
          <leafValues>
            4.7422435879707336e-01 -2.3438537120819092e-01</leafValues></_>
        <_>
          <internalNodes>
            0 -1 371 2.1608397364616394e-03</internalNodes>
          <leafValues>
            1.4648251235485077e-01 -6.1607831716537476e-01</leafValues></_>
        <_>
          <internalNodes>
            0 -1 283 -6.7246137186884880e-03</internalNodes>
          <leafValues>
            3.6073017120361328e-01 -2.0952463150024414e-01</leafValues></_>
        <_>
          <internalNodes>
            0 -1 353 1.0572960600256920e-02</internalNodes>
          <leafValues>
            -1.1565209925174713e-01 5.5668437480926514e-01</leafValues></_>
        <_>
          <internalNodes>
            0 -1 157 1.0414085350930691e-02</internalNodes>
          <leafValues>
            -1.2067050486803055e-01 5.8054822683334351e-01</leafValues></_>
        <_>
          <internalNodes>
            0 -1 215 1.6658374667167664e-01</internalNodes>
          <leafValues>
            -1.3701313734054565e-01 4.6547988057136536e-01</leafValues></_>
        <_>
          <internalNodes>
            0 -1 588 2.0366825163364410e-02</internalNodes>
          <leafValues>
            -1.3562546670436859e-01 5.5552601814270020e-01</leafValues></_>
        <_>
          <internalNodes>
            0 -1 328 -2.5579440593719482e-01</internalNodes>
          <leafValues>
            7.4424916505813599e-01 -6.6418223083019257e-02</leafValues></_>
        <_>
          <internalNodes>
            0 -1 290 -6.6230595111846924e-02</internalNodes>
          <leafValues>
            3.2837051153182983e-01 -2.1880096197128296e-01</leafValues></_>
        <_>
          <internalNodes>
            0 -1 427 1.5630979090929031e-02</internalNodes>
          <leafValues>
            -1.8133454024791718e-01 4.3310493230819702e-01</leafValues></_>
        <_>
          <internalNodes>
            0 -1 375 -2.6442066300660372e-03</internalNodes>
          <leafValues>
            -4.3509450554847717e-01 1.8480242788791656e-01</leafValues></_>
        <_>
          <internalNodes>
            0 -1 269 -5.1405718550086021e-03</internalNodes>
          <leafValues>
            -5.7126998901367188e-01 1.1624527722597122e-01</leafValues></_>
        <_>
          <internalNodes>
            0 -1 354 -1.4065872877836227e-02</internalNodes>
          <leafValues>
            5.5891090631484985e-01 -1.1912017315626144e-01</leafValues></_>
        <_>
          <internalNodes>
            0 -1 339 1.2188020627945662e-03</internalNodes>
          <leafValues>
            1.4237609505653381e-01 -4.7057297825813293e-01</leafValues></_>
        <_>
          <internalNodes>
            0 -1 181 2.1610736846923828e-02</internalNodes>
          <leafValues>
            -1.5392521023750305e-01 4.7804671525955200e-01</leafValues></_>
        <_>
          <internalNodes>
            0 -1 238 -6.9166980683803558e-03</internalNodes>
          <leafValues>
            4.8607978224754333e-01 -1.4038349688053131e-01</leafValues></_></weakClassifiers></_>
    <!-- stage 5 -->
    <_>
      <maxWeakCount>24</maxWeakCount>
      <stageThreshold>-1.1795499324798584e+00</stageThreshold>
      <weakClassifiers>
        <_>
          <internalNodes>
            0 -1 563 1.6463711857795715e-02</internalNodes>
          <leafValues>
            -5.2574849128723145e-01 2.5308641791343689e-01</leafValues></_>
        <_>
          <internalNodes>
            0 -1 106 -2.0541456341743469e-01</internalNodes>
          <leafValues>
            4.3415182828903198e-01 -2.7453181147575378e-01</leafValues></_>
        <_>
          <internalNodes>
            0 -1 233 -3.3253040164709091e-03</internalNodes>
          <leafValues>
            3.0904909968376160e-01 -2.4677087366580963e-01</leafValues></_>
        <_>
          <internalNodes>
            0 -1 61 -6.3603386282920837e-02</internalNodes>
          <leafValues>
            2.6405996084213257e-01 -2.9703363776206970e-01</leafValues></_>
        <_>
          <internalNodes>
            0 -1 21 -2.2129672579467297e-03</internalNodes>
          <leafValues>
            3.1475418806076050e-01 -2.2871150076389313e-01</leafValues></_>
        <_>
          <internalNodes>
            0 -1 552 8.5032209753990173e-02</internalNodes>
          <leafValues>
            -1.4918710291385651e-01 6.3707143068313599e-01</leafValues></_>
        <_>
          <internalNodes>
            0 -1 195 1.1554248631000519e-02</internalNodes>
          <leafValues>
            -1.6065166890621185e-01 3.7081930041313171e-01</leafValues></_>
        <_>
          <internalNodes>
            0 -1 182 4.0526017546653748e-02</internalNodes>
          <leafValues>
            -8.3079397678375244e-02 5.6016045808792114e-01</leafValues></_>
        <_>
          <internalNodes>
            0 -1 200 4.5671928673982620e-03</internalNodes>
          <leafValues>
            -1.3824990391731262e-01 4.0776455402374268e-01</leafValues></_>
        <_>
          <internalNodes>
            0 -1 422 -1.4123829314485192e-03</internalNodes>
          <leafValues>
            -5.4445308446884155e-01 1.2011089175939560e-01</leafValues></_>
        <_>
          <internalNodes>
            0 -1 470 -4.8626693896949291e-03</internalNodes>
          <leafValues>
            -4.9582678079605103e-01 1.0891621559858322e-01</leafValues></_>
        <_>
          <internalNodes>
            0 -1 243 -1.0594186373054981e-02</internalNodes>
          <leafValues>
            2.8490972518920898e-01 -1.8087014555931091e-01</leafValues></_>
        <_>
          <internalNodes>
            0 -1 136 -4.1647560894489288e-02</internalNodes>
          <leafValues>
            4.5447596907615662e-01 -1.3812927901744843e-01</leafValues></_>
        <_>
          <internalNodes>
            0 -1 38 5.3125374019145966e-02</internalNodes>
          <leafValues>
            -9.6157692372798920e-02 5.0829571485519409e-01</leafValues></_>
        <_>
          <internalNodes>
            0 -1 463 -8.3286389708518982e-03</internalNodes>
          <leafValues>
            2.2043184936046600e-01 -2.4028250575065613e-01</leafValues></_>
        <_>
          <internalNodes>
            0 -1 608 1.8786970525979996e-02</internalNodes>
          <leafValues>
            -1.5752243995666504e-01 3.7694355845451355e-01</leafValues></_>
        <_>
          <internalNodes>
            0 -1 476 -5.4895645007491112e-03</internalNodes>
          <leafValues>
            3.7310066819190979e-01 -1.2634412944316864e-01</leafValues></_>
        <_>
          <internalNodes>
            0 -1 359 3.3399976789951324e-02</internalNodes>
          <leafValues>
            -1.7192922532558441e-01 3.1118956208229065e-01</leafValues></_>
        <_>
          <internalNodes>
            0 -1 591 3.7124694790691137e-04</internalNodes>
          <leafValues>
            1.5897895395755768e-01 -3.8097482919692993e-01</leafValues></_>
        <_>
          <internalNodes>
            0 -1 453 2.1108672954142094e-03</internalNodes>
          <leafValues>
            -1.4072453975677490e-01 3.8168841600418091e-01</leafValues></_>
        <_>
          <internalNodes>
            0 -1 418 -4.0180347859859467e-03</internalNodes>
          <leafValues>
            -7.3216801881790161e-01 9.3158036470413208e-02</leafValues></_>
        <_>
          <internalNodes>
            0 -1 66 1.1527644470334053e-02</internalNodes>
          <leafValues>
            6.8168468773365021e-02 -5.7832163572311401e-01</leafValues></_>
        <_>
          <internalNodes>
            0 -1 150 -1.2194862589240074e-02</internalNodes>
          <leafValues>
            5.2663016319274902e-01 -1.1210922896862030e-01</leafValues></_>
        <_>
          <internalNodes>
            0 -1 365 -1.9972510926891118e-05</internalNodes>
          <leafValues>
            1.6953581571578979e-01 -3.1759911775588989e-01</leafValues></_></weakClassifiers></_>
    <!-- stage 6 -->
    <_>
      <maxWeakCount>29</maxWeakCount>
      <stageThreshold>-1.0883027315139771e+00</stageThreshold>
      <weakClassifiers>
        <_>
          <internalNodes>
            0 -1 59 -4.3012470006942749e-02</internalNodes>
          <leafValues>
            3.1158238649368286e-01 -3.2160803675651550e-01</leafValues></_>
        <_>
          <internalNodes>
            0 -1 360 -3.2542941626161337e-03</internalNodes>
          <leafValues>
            3.0455183982849121e-01 -2.5134792923927307e-01</leafValues></_>
        <_>
          <internalNodes>
            0 -1 212 1.1199013888835907e-01</internalNodes>
          <leafValues>
            -1.7901055514812469e-01 3.8173952698707581e-01</leafValues></_>
        <_>
          <internalNodes>
            0 -1 332 -1.7765581607818604e-01</internalNodes>
          <leafValues>
            6.0968577861785889e-01 -1.2155876308679581e-01</leafValues></_>
        <_>
          <internalNodes>
            0 -1 604 3.3950082957744598e-02</internalNodes>
          <leafValues>
            -2.5048023462295532e-01 2.6546657085418701e-01</leafValues></_>
        <_>
          <internalNodes>
            0 -1 151 2.3268735094461590e-04</internalNodes>
          <leafValues>
            1.3568045198917389e-01 -4.7830897569656372e-01</leafValues></_>
        <_>
          <internalNodes>
            0 -1 92 -5.1704151555895805e-03</internalNodes>
          <leafValues>
            3.9868542551994324e-01 -1.0809507966041565e-01</leafValues></_>
        <_>
          <internalNodes>
            0 -1 187 3.7968633696436882e-03</internalNodes>
          <leafValues>
            -1.3532510399818420e-01 3.7390023469924927e-01</leafValues></_>
        <_>
          <internalNodes>
            0 -1 88 6.8903347710147500e-04</internalNodes>
          <leafValues>
            1.7215582728385925e-01 -3.9050632715225220e-01</leafValues></_>
        <_>
          <internalNodes>
            0 -1 165 -1.7660506069660187e-02</internalNodes>
          <leafValues>
            3.6703711748123169e-01 -1.7427788674831390e-01</leafValues></_>
        <_>
          <internalNodes>
            0 -1 324 9.7763612866401672e-03</internalNodes>
          <leafValues>
            -1.0601200163364410e-01 4.1184243559837341e-01</leafValues></_>
        <_>
          <internalNodes>
            0 -1 305 -5.6214191019535065e-02</internalNodes>
          <leafValues>
            5.0494527816772461e-01 -1.1434872448444366e-01</leafValues></_>
        <_>
          <internalNodes>
            0 -1 387 1.4544896548613906e-03</internalNodes>
          <leafValues>
            -1.4206093549728394e-01 3.1167912483215332e-01</leafValues></_>
        <_>
          <internalNodes>
            0 -1 449 -1.9468311220407486e-02</internalNodes>
          <leafValues>
            4.0251109004020691e-01 -1.3198101520538330e-01</leafValues></_>
        <_>
          <internalNodes>
            0 -1 410 3.3490057103335857e-03</internalNodes>
          <leafValues>
            1.0225947946310043e-01 -4.6144762635231018e-01</leafValues></_>
        <_>
          <internalNodes>
            0 -1 595 -7.2747822850942612e-03</internalNodes>
          <leafValues>
            2.5457331538200378e-01 -1.8783430755138397e-01</leafValues></_>
        <_>
          <internalNodes>
            0 -1 53 -2.4936664849519730e-02</internalNodes>
          <leafValues>
            3.4176081418991089e-01 -1.4906452596187592e-01</leafValues></_>
        <_>
          <internalNodes>
            0 -1 18 -5.0965674221515656e-02</internalNodes>
          <leafValues>
            3.0315592885017395e-01 -1.5458242595195770e-01</leafValues></_>
        <_>
          <internalNodes>
            0 -1 468 -8.7941084057092667e-03</internalNodes>
          <leafValues>
            3.0754035711288452e-01 -1.5862819552421570e-01</leafValues></_>
        <_>
          <internalNodes>
            0 -1 373 -8.2216353621333838e-04</internalNodes>
          <leafValues>
            -4.7159039974212646e-01 9.4322673976421356e-02</leafValues></_>
        <_>
          <internalNodes>
            0 -1 571 6.3359872438013554e-03</internalNodes>
          <leafValues>
            -1.4035335183143616e-01 3.1138950586318970e-01</leafValues></_>
        <_>
          <internalNodes>
            0 -1 117 -6.2199153006076813e-02</internalNodes>
          <leafValues>
            4.4078963994979858e-01 -1.0140650719404221e-01</leafValues></_>
        <_>
          <internalNodes>
            0 -1 652 -5.5929715745151043e-04</internalNodes>
          <leafValues>
            -4.7799074649810791e-01 1.0179490596055984e-01</leafValues></_>
        <_>
          <internalNodes>
            0 -1 652 4.9355131341144443e-04</internalNodes>
          <leafValues>
            9.5793113112449646e-02 -4.3557173013687134e-01</leafValues></_>
        <_>
          <internalNodes>
            0 -1 502 3.6360165104269981e-03</internalNodes>
          <leafValues>
            -1.4925135672092438e-01 3.0010637640953064e-01</leafValues></_>
        <_>
          <internalNodes>
            0 -1 293 3.5419617779552937e-04</internalNodes>
          <leafValues>
            1.3458947837352753e-01 -2.8351101279258728e-01</leafValues></_>
        <_>
          <internalNodes>
            0 -1 514 6.0544069856405258e-04</internalNodes>
          <leafValues>
            -1.0599439591169357e-01 4.0156659483909607e-01</leafValues></_>
        <_>
          <internalNodes>
            0 -1 169 5.7675037533044815e-04</internalNodes>
          <leafValues>
            1.3257965445518494e-01 -3.5889136791229248e-01</leafValues></_>
        <_>
          <internalNodes>
            0 -1 528 -8.0267433077096939e-03</internalNodes>
          <leafValues>
            -4.0398302674293518e-01 9.2816896736621857e-02</leafValues></_></weakClassifiers></_>
    <!-- stage 7 -->
    <_>
      <maxWeakCount>13</maxWeakCount>
      <stageThreshold>-9.5880472660064697e-01</stageThreshold>
      <weakClassifiers>
        <_>
          <internalNodes>
            0 -1 197 5.4550445638597012e-03</internalNodes>
          <leafValues>
            -3.2069510221481323e-01 3.9371535181999207e-01</leafValues></_>
        <_>
          <internalNodes>
            0 -1 393 -1.4128577895462513e-03</internalNodes>
          <leafValues>
            4.8908245563507080e-01 -1.8771018087863922e-01</leafValues></_>
        <_>
          <internalNodes>
            0 -1 649 2.8462951377150603e-05</internalNodes>
          <leafValues>
            -2.6421207189559937e-01 3.4090441465377808e-01</leafValues></_>
        <_>
          <internalNodes>
            0 -1 78 -3.8116425275802612e-04</internalNodes>
          <leafValues>
            -3.3915665745735168e-01 2.7502888441085815e-01</leafValues></_>
        <_>
          <internalNodes>
            0 -1 501 -3.4836616367101669e-02</internalNodes>
          <leafValues>
            4.7606900334358215e-01 -1.8259108066558838e-01</leafValues></_>
        <_>
          <internalNodes>
            0 -1 229 3.4910934045910835e-03</internalNodes>
          <leafValues>
            -1.9274289906024933e-01 4.5127794146537781e-01</leafValues></_>
        <_>
          <internalNodes>
            0 -1 134 -1.5472995073650964e-05</internalNodes>
          <leafValues>
            3.8969880342483521e-01 -1.9833284616470337e-01</leafValues></_>
        <_>
          <internalNodes>
            0 -1 155 -1.2923038005828857e-01</internalNodes>
          <leafValues>
            -7.8943163156509399e-01 8.9095540344715118e-02</leafValues></_>
        <_>
          <internalNodes>
            0 -1 336 -1.0128333233296871e-03</internalNodes>
          <leafValues>
            -4.6479865908622742e-01 1.4598639309406281e-01</leafValues></_>
        <_>
          <internalNodes>
            0 -1 479 3.2213516533374786e-05</internalNodes>
          <leafValues>
            -2.1846625208854675e-01 3.1494486331939697e-01</leafValues></_>
        <_>
          <internalNodes>
            0 -1 479 -1.2376353879517410e-05</internalNodes>
          <leafValues>
            3.4178444743156433e-01 -2.1050992608070374e-01</leafValues></_>
        <_>
          <internalNodes>
            0 -1 186 -4.5548282563686371e-02</internalNodes>
          <leafValues>
            -6.2805396318435669e-01 1.0828715562820435e-01</leafValues></_>
        <_>
          <internalNodes>
            0 -1 668 -8.9955996372736990e-05</internalNodes>
          <leafValues>
            2.7743083238601685e-01 -2.6475429534912109e-01</leafValues></_></weakClassifiers></_>
    <!-- stage 8 -->
    <_>
      <maxWeakCount>9</maxWeakCount>
      <stageThreshold>-1.3112663030624390e+00</stageThreshold>
      <weakClassifiers>
        <_>
          <internalNodes>
            0 -1 547 -2.9577827081084251e-03</internalNodes>
          <leafValues>
            5.6554305553436279e-01 -3.8884523510932922e-01</leafValues></_>
        <_>
          <internalNodes>
            0 -1 286 1.7005889676511288e-03</internalNodes>
          <leafValues>
            -1.9431631267070770e-01 7.6419901847839355e-01</leafValues></_>
        <_>
          <internalNodes>
            0 -1 129 3.0525756301358342e-05</internalNodes>
          <leafValues>
            -2.6745417714118958e-01 5.7460343837738037e-01</leafValues></_>
        <_>
          <internalNodes>
            0 -1 129 -2.8067601306247525e-05</internalNodes>
          <leafValues>
            5.3829920291900635e-01 -3.6519399285316467e-01</leafValues></_>
        <_>
          <internalNodes>
            0 -1 321 -7.5248861685395241e-04</internalNodes>
          <leafValues>
            7.1941584348678589e-01 -1.6980704665184021e-01</leafValues></_>
        <_>
          <internalNodes>
            0 -1 162 1.2568662896228489e-05</internalNodes>
          <leafValues>
            -2.4624873697757721e-01 5.3518378734588623e-01</leafValues></_>
        <_>
          <internalNodes>
            0 -1 487 1.2038219720125198e-03</internalNodes>
          <leafValues>
            -1.6175273060798645e-01 8.1763327121734619e-01</leafValues></_>
        <_>
          <internalNodes>
            0 -1 453 -2.3635164834558964e-03</internalNodes>
          <leafValues>
            8.1132429838180542e-01 -1.8781258165836334e-01</leafValues></_>
        <_>
          <internalNodes>
            0 -1 219 1.2885195246781223e-05</internalNodes>
          <leafValues>
            -2.3332864046096802e-01 5.7624435424804688e-01</leafValues></_></weakClassifiers></_>
    <!-- stage 9 -->
    <_>
      <maxWeakCount>11</maxWeakCount>
      <stageThreshold>-8.6495655775070190e-01</stageThreshold>
      <weakClassifiers>
        <_>
          <internalNodes>
            0 -1 284 -5.1476480439305305e-03</internalNodes>
          <leafValues>
            6.3031423091888428e-01 -4.2180094122886658e-01</leafValues></_>
        <_>
          <internalNodes>
            0 -1 546 1.0773948160931468e-03</internalNodes>
          <leafValues>
            -1.6190543770790100e-01 8.2821625471115112e-01</leafValues></_>
        <_>
          <internalNodes>
            0 -1 546 -1.3823432382196188e-03</internalNodes>
          <leafValues>
            7.7183926105499268e-01 -2.1279443800449371e-01</leafValues></_>
        <_>
          <internalNodes>
            0 -1 402 -2.7204141952097416e-03</internalNodes>
          <leafValues>
            6.9368392229080200e-01 -1.5978488326072693e-01</leafValues></_>
        <_>
          <internalNodes>
            0 -1 391 -3.1686984584666789e-05</internalNodes>
          <leafValues>
            5.1755893230438232e-01 -2.5429618358612061e-01</leafValues></_>
        <_>
          <internalNodes>
            0 -1 391 1.6517818949068896e-05</internalNodes>
          <leafValues>
            -3.4470859169960022e-01 5.1188945770263672e-01</leafValues></_>
        <_>
          <internalNodes>
            0 -1 351 9.4312231522053480e-04</internalNodes>
          <leafValues>
            -1.3149081170558929e-01 7.5551795959472656e-01</leafValues></_>
        <_>
          <internalNodes>
            0 -1 351 -1.7337088938802481e-03</internalNodes>
          <leafValues>
            8.5073500871658325e-01 -1.3951608538627625e-01</leafValues></_>
        <_>
          <internalNodes>
            0 -1 349 -2.1206443198025227e-03</internalNodes>
          <leafValues>
            5.2056497335433960e-01 -2.3635579645633698e-01</leafValues></_>
        <_>
          <internalNodes>
            0 -1 622 5.7597542181611061e-03</internalNodes>
          <leafValues>
            -1.7318448424339294e-01 6.7530566453933716e-01</leafValues></_>
        <_>
          <internalNodes>
            0 -1 198 -1.0080107022076845e-03</internalNodes>
          <leafValues>
            7.2699338197708130e-01 -1.5789471566677094e-01</leafValues></_></weakClassifiers></_>
    <!-- stage 10 -->
    <_>
      <maxWeakCount>21</maxWeakCount>
      <stageThreshold>-1.0655685663223267e+00</stageThreshold>
      <weakClassifiers>
        <_>
          <internalNodes>
            0 -1 102 -2.3930630087852478e-01</internalNodes>
          <leafValues>
            2.4091520905494690e-01 -3.4962406754493713e-01</leafValues></_>
        <_>
          <internalNodes>
            0 -1 556 -1.5079468539624941e-05</internalNodes>
          <leafValues>
            2.2264786064624786e-01 -3.1572645902633667e-01</leafValues></_>
        <_>
          <internalNodes>
            0 -1 574 -7.9199261963367462e-03</internalNodes>
          <leafValues>
            5.2839857339859009e-01 -1.3734380900859833e-01</leafValues></_>
        <_>
          <internalNodes>
            0 -1 644 -2.9862701921956614e-05</internalNodes>
          <leafValues>
            3.0289939045906067e-01 -2.2642056643962860e-01</leafValues></_>
        <_>
          <internalNodes>
            0 -1 207 -3.3404191490262747e-03</internalNodes>
          <leafValues>
            4.3198281526565552e-01 -1.3849797844886780e-01</leafValues></_>
        <_>
          <internalNodes>
            0 -1 261 -1.6275905072689056e-02</internalNodes>
          <leafValues>
            4.6964216232299805e-01 -1.0949170589447021e-01</leafValues></_>
        <_>
          <internalNodes>
            0 -1 263 -9.7495466470718384e-03</internalNodes>
          <leafValues>
            3.7640386819839478e-01 -1.8143558502197266e-01</leafValues></_>
        <_>
          <internalNodes>
            0 -1 268 7.9516163095831871e-03</internalNodes>
          <leafValues>
            -1.4414259791374207e-01 5.6811296939849854e-01</leafValues></_>
        <_>
          <internalNodes>
            0 -1 33 5.6747542694211006e-03</internalNodes>
          <leafValues>
            -1.3115349411964417e-01 4.6164917945861816e-01</leafValues></_>
        <_>
          <internalNodes>
            0 -1 55 1.4309718608274125e-05</internalNodes>
          <leafValues>
            -1.8561352789402008e-01 3.0135664343833923e-01</leafValues></_>
        <_>
          <internalNodes>
            0 -1 516 -3.7646587006747723e-03</internalNodes>
          <leafValues>
            4.1861766576766968e-01 -1.3606409728527069e-01</leafValues></_>
        <_>
          <internalNodes>
            0 -1 633 5.9280730783939362e-03</internalNodes>
          <leafValues>
            -1.0616477578878403e-01 4.4486194849014282e-01</leafValues></_>
        <_>
          <internalNodes>
            0 -1 390 2.2613108158111572e-02</internalNodes>
          <leafValues>
            -9.0675488114356995e-02 5.9161734580993652e-01</leafValues></_>
        <_>
          <internalNodes>
            0 -1 532 9.2024430632591248e-03</internalNodes>
          <leafValues>
            -1.2591004371643066e-01 5.3764152526855469e-01</leafValues></_>
        <_>
          <internalNodes>
            0 -1 69 9.9731788039207458e-02</internalNodes>
          <leafValues>
            1.4405032992362976e-01 -4.8459249734878540e-01</leafValues></_>
        <_>
          <internalNodes>
            0 -1 239 7.0293946191668510e-03</internalNodes>
          <leafValues>
            -1.3379758596420288e-01 4.2430809140205383e-01</leafValues></_>
        <_>
          <internalNodes>
            0 -1 247 3.5787769593298435e-03</internalNodes>
          <leafValues>
            -1.3704821467399597e-01 3.6954513192176819e-01</leafValues></_>
        <_>
          <internalNodes>
            0 -1 249 -9.3657895922660828e-03</internalNodes>
          <leafValues>
            3.2329905033111572e-01 -1.9118061661720276e-01</leafValues></_>
        <_>
          <internalNodes>
            0 -1 127 -7.7255455835256726e-05</internalNodes>
          <leafValues>
            1.6795332729816437e-01 -3.4620603919029236e-01</leafValues></_>
        <_>
          <internalNodes>
            0 -1 364 -5.6083247065544128e-02</internalNodes>
          <leafValues>
            -5.4457038640975952e-01 1.2252150475978851e-01</leafValues></_>
        <_>
          <internalNodes>
            0 -1 488 -4.1217668913304806e-03</internalNodes>
          <leafValues>
            3.7556013464927673e-01 -1.5808643400669098e-01</leafValues></_></weakClassifiers></_>
    <!-- stage 11 -->
    <_>
      <maxWeakCount>23</maxWeakCount>
      <stageThreshold>-1.0594612360000610e+00</stageThreshold>
      <weakClassifiers>
        <_>
          <internalNodes>
            0 -1 174 -8.5001243278384209e-03</internalNodes>
          <leafValues>
            1.8029350042343140e-01 -4.2790153622627258e-01</leafValues></_>
        <_>
          <internalNodes>
            0 -1 548 -7.8395307064056396e-03</internalNodes>
          <leafValues>
            4.1270977258682251e-01 -2.1453440189361572e-01</leafValues></_>
        <_>
          <internalNodes>
            0 -1 318 -6.6483486443758011e-03</internalNodes>
          <leafValues>
            3.1959939002990723e-01 -2.0542177557945251e-01</leafValues></_>
        <_>
          <internalNodes>
            0 -1 252 -2.3219570517539978e-01</internalNodes>
          <leafValues>
            6.8314206600189209e-01 -1.1702876538038254e-01</leafValues></_>
        <_>
          <internalNodes>
            0 -1 103 -1.2335618585348129e-01</internalNodes>
          <leafValues>
            3.1213063001632690e-01 -2.5384539365768433e-01</leafValues></_>
        <_>
          <internalNodes>
            0 -1 537 1.0710754431784153e-03</internalNodes>
          <leafValues>
            -1.3840098679065704e-01 3.8976892828941345e-01</leafValues></_>
        <_>
          <internalNodes>
            0 -1 140 -1.2959689833223820e-02</internalNodes>
          <leafValues>
            4.3737071752548218e-01 -1.4617930352687836e-01</leafValues></_>
        <_>
          <internalNodes>
            0 -1 555 7.5010351836681366e-02</internalNodes>
          <leafValues>
            -1.7820875346660614e-01 3.1666463613510132e-01</leafValues></_>
        <_>
          <internalNodes>
            0 -1 124 -2.2103644907474518e-01</internalNodes>
          <leafValues>
            5.0354140996932983e-01 -1.0428693890571594e-01</leafValues></_>
        <_>
          <internalNodes>
            0 -1 413 5.9762329328805208e-04</internalNodes>
          <leafValues>
            1.2000132352113724e-01 -4.2982250452041626e-01</leafValues></_>
        <_>
          <internalNodes>
            0 -1 525 -1.2049425393342972e-02</internalNodes>
          <leafValues>
            5.2679735422134399e-01 -1.0966692119836807e-01</leafValues></_>
        <_>
          <internalNodes>
            0 -1 533 9.6583291888237000e-03</internalNodes>
          <leafValues>
            -1.2205462902784348e-01 3.6862677335739136e-01</leafValues></_>
        <_>
          <internalNodes>
            0 -1 526 -6.8209227174520493e-04</internalNodes>
          <leafValues>
            -5.3257501125335693e-01 1.0140302777290344e-01</leafValues></_>
        <_>
          <internalNodes>
            0 -1 499 1.0965524241328239e-02</internalNodes>
          <leafValues>
            -1.7567761242389679e-01 3.0550396442413330e-01</leafValues></_>
        <_>
          <internalNodes>
            0 -1 440 -1.6073272563517094e-03</internalNodes>
          <leafValues>
            4.2417898774147034e-01 -1.0769663751125336e-01</leafValues></_>
        <_>
          <internalNodes>
            0 -1 383 6.0999289155006409e-02</internalNodes>
          <leafValues>
            6.6588424146175385e-02 -7.6760721206665039e-01</leafValues></_>
        <_>
          <internalNodes>
            0 -1 606 1.0006748139858246e-02</internalNodes>
          <leafValues>
            -2.0239162445068359e-01 2.7282989025115967e-01</leafValues></_>
        <_>
          <internalNodes>
            0 -1 232 -8.8108365889638662e-04</internalNodes>
          <leafValues>
            2.6531141996383667e-01 -2.2840286791324615e-01</leafValues></_>
        <_>
          <internalNodes>
            0 -1 650 -1.0948148556053638e-03</internalNodes>
          <leafValues>
            -4.9205777049064636e-01 1.2677890062332153e-01</leafValues></_>
        <_>
          <internalNodes>
            0 -1 301 8.6259413510560989e-03</internalNodes>
          <leafValues>
            -1.5687781572341919e-01 3.6728131771087646e-01</leafValues></_>
        <_>
          <internalNodes>
            0 -1 323 -2.4794878438115120e-02</internalNodes>
          <leafValues>
            6.4677888154983521e-01 -8.0533564090728760e-02</leafValues></_>
        <_>
          <internalNodes>
            0 -1 341 -5.7104427833110094e-04</internalNodes>
          <leafValues>
            -4.7509595751762390e-01 1.2612259387969971e-01</leafValues></_>
        <_>
          <internalNodes>
            0 -1 446 -4.9055488780140877e-03</internalNodes>
          <leafValues>
            5.6686347723007202e-01 -9.0863138437271118e-02</leafValues></_></weakClassifiers></_>
    <!-- stage 12 -->
    <_>
      <maxWeakCount>28</maxWeakCount>
      <stageThreshold>-1.0282905101776123e+00</stageThreshold>
      <weakClassifiers>
        <_>
          <internalNodes>
            0 -1 513 -1.5813358128070831e-02</internalNodes>
          <leafValues>
            3.1793960928916931e-01 -2.9903537034988403e-01</leafValues></_>
        <_>
          <internalNodes>
            0 -1 498 2.0972996950149536e-02</internalNodes>
          <leafValues>
            -3.7527218461036682e-01 1.8670366704463959e-01</leafValues></_>
        <_>
          <internalNodes>
            0 -1 190 -1.8456056714057922e-02</internalNodes>
          <leafValues>
            3.3847224712371826e-01 -1.7970734834671021e-01</leafValues></_>
        <_>
          <internalNodes>
            0 -1 170 -8.2699656486511230e-03</internalNodes>
          <leafValues>
            2.4182049930095673e-01 -2.1259216964244843e-01</leafValues></_>
        <_>
          <internalNodes>
            0 -1 310 3.0039139091968536e-02</internalNodes>
          <leafValues>
            -1.0083822906017303e-01 5.4595547914505005e-01</leafValues></_>
        <_>
          <internalNodes>
            0 -1 31 -3.9550075307488441e-03</internalNodes>
          <leafValues>
            2.5646561384201050e-01 -2.0845645666122437e-01</leafValues></_>
        <_>
          <internalNodes>
            0 -1 343 -1.2136965990066528e-02</internalNodes>
          <leafValues>
            4.4772142171859741e-01 -1.2546962499618530e-01</leafValues></_>
        <_>
          <internalNodes>
            0 -1 652 1.8952551181428134e-04</internalNodes>
          <leafValues>
            1.3380126655101776e-01 -3.4658196568489075e-01</leafValues></_>
        <_>
          <internalNodes>
            0 -1 384 -2.5691930204629898e-03</internalNodes>
          <leafValues>
            2.7015039324760437e-01 -1.6089846193790436e-01</leafValues></_>
        <_>
          <internalNodes>
            0 -1 464 -2.7735270559787750e-03</internalNodes>
          <leafValues>
            -4.3694564700126648e-01 1.0451206564903259e-01</leafValues></_>
        <_>
          <internalNodes>
            0 -1 152 1.8557477742433548e-03</internalNodes>
          <leafValues>
            -1.8327698111534119e-01 2.5296291708946228e-01</leafValues></_>
        <_>
          <internalNodes>
            0 -1 153 5.7527655735611916e-04</internalNodes>
          <leafValues>
            1.0678867995738983e-01 -4.3975085020065308e-01</leafValues></_>
        <_>
          <internalNodes>
            0 -1 199 2.2873657289892435e-03</internalNodes>
          <leafValues>
            -1.3138633966445923e-01 3.2276317477226257e-01</leafValues></_>
        <_>
          <internalNodes>
            0 -1 41 3.5418003797531128e-02</internalNodes>
          <leafValues>
            -1.0630951076745987e-01 4.2864206433296204e-01</leafValues></_>
        <_>
          <internalNodes>
            0 -1 122 -2.3917026817798615e-02</internalNodes>
          <leafValues>
            2.8823953866958618e-01 -1.5467795729637146e-01</leafValues></_>
        <_>
          <internalNodes>
            0 -1 149 4.3616006150841713e-03</internalNodes>
          <leafValues>
            -1.1590668559074402e-01 3.6779281497001648e-01</leafValues></_>
        <_>
          <internalNodes>
            0 -1 472 1.5366943553090096e-03</internalNodes>
          <leafValues>
            7.5426824390888214e-02 -5.7895684242248535e-01</leafValues></_>
        <_>
          <internalNodes>
            0 -1 663 -4.0364312008023262e-04</internalNodes>
          <leafValues>
            -6.4336395263671875e-01 5.4654404520988464e-02</leafValues></_>
        <_>
          <internalNodes>
            0 -1 546 1.7011468298733234e-03</internalNodes>
          <leafValues>
            -1.0746261477470398e-01 4.0403392910957336e-01</leafValues></_>
        <_>
          <internalNodes>
            0 -1 481 1.3810857199132442e-03</internalNodes>
          <leafValues>
            -1.3574953377246857e-01 2.7482944726943970e-01</leafValues></_>
        <_>
          <internalNodes>
            0 -1 460 -3.2593375071883202e-03</internalNodes>
          <leafValues>
            -4.1094747185707092e-01 1.0421355068683624e-01</leafValues></_>
        <_>
          <internalNodes>
            0 -1 409 1.2784429127350450e-03</internalNodes>
          <leafValues>
            1.1074177175760269e-01 -3.9435622096061707e-01</leafValues></_>
        <_>
          <internalNodes>
            0 -1 273 -8.2084378227591515e-03</internalNodes>
          <leafValues>
            2.3536543548107147e-01 -1.6698384284973145e-01</leafValues></_>
        <_>
          <internalNodes>
            0 -1 231 9.1607641661539674e-04</internalNodes>
          <leafValues>
            7.6819971203804016e-02 -5.7866549491882324e-01</leafValues></_>
        <_>
          <internalNodes>
            0 -1 392 1.7181531293317676e-03</internalNodes>
          <leafValues>
            -1.3588026165962219e-01 3.5560184717178345e-01</leafValues></_>
        <_>
          <internalNodes>
            0 -1 564 1.7903591506183147e-03</internalNodes>
          <leafValues>
            8.5350252687931061e-02 -5.3952091932296753e-01</leafValues></_>
        <_>
          <internalNodes>
            0 -1 221 3.3202979713678360e-02</internalNodes>
          <leafValues>
            -1.0698168724775314e-01 4.5790436863899231e-01</leafValues></_>
        <_>
          <internalNodes>
            0 -1 511 5.4683764465153217e-03</internalNodes>
          <leafValues>
            -1.6149994730949402e-01 2.7425748109817505e-01</leafValues></_></weakClassifiers></_>
    <!-- stage 13 -->
    <_>
      <maxWeakCount>34</maxWeakCount>
      <stageThreshold>-1.0143362283706665e+00</stageThreshold>
      <weakClassifiers>
        <_>
          <internalNodes>
            0 -1 597 5.7894792407751083e-02</internalNodes>
          <leafValues>
            -3.7698411941528320e-01 2.3404255509376526e-01</leafValues></_>
        <_>
          <internalNodes>
            0 -1 194 -8.3262622356414795e-02</internalNodes>
          <leafValues>
            3.5612687468528748e-01 -1.5787328779697418e-01</leafValues></_>
        <_>
          <internalNodes>
            0 -1 179 -3.8091264665126801e-02</internalNodes>
          <leafValues>
            2.4719084799289703e-01 -2.2652415931224823e-01</leafValues></_>
        <_>
          <internalNodes>
            0 -1 292 -2.5079619884490967e-01</internalNodes>
          <leafValues>
            5.3064346313476563e-01 -1.2386331707239151e-01</leafValues></_>
        <_>
          <internalNodes>
            0 -1 110 -3.3704392611980438e-02</internalNodes>
          <leafValues>
            3.0700889229774475e-01 -1.3726460933685303e-01</leafValues></_>
        <_>
          <internalNodes>
            0 -1 330 6.6673019900918007e-03</internalNodes>
          <leafValues>
            1.4471335709095001e-01 -4.4539150595664978e-01</leafValues></_>
        <_>
          <internalNodes>
            0 -1 308 2.3454469628632069e-03</internalNodes>
          <leafValues>
            -2.0561285316944122e-01 2.3347535729408264e-01</leafValues></_>
        <_>
          <internalNodes>
            0 -1 298 -1.9697187468409538e-02</internalNodes>
          <leafValues>
            3.4929475188255310e-01 -8.4969647228717804e-02</leafValues></_>
        <_>
          <internalNodes>
            0 -1 549 -5.3726561600342393e-04</internalNodes>
          <leafValues>
            3.2697063684463501e-01 -1.3832911849021912e-01</leafValues></_>
        <_>
          <internalNodes>
            0 -1 390 2.3657314479351044e-02</internalNodes>
          <leafValues>
            -9.9767759442329407e-02 4.3696740269660950e-01</leafValues></_>
        <_>
          <internalNodes>
            0 -1 639 -1.3834272976964712e-04</internalNodes>
          <leafValues>
            -3.7662884593009949e-01 1.2799964845180511e-01</leafValues></_>
        <_>
          <internalNodes>
            0 -1 224 7.4461178155615926e-04</internalNodes>
          <leafValues>
            -1.9939617812633514e-01 1.8501538038253784e-01</leafValues></_>
        <_>
          <internalNodes>
            0 -1 177 2.0790074020624161e-02</internalNodes>
          <leafValues>
            -9.8996676504611969e-02 4.1591966152191162e-01</leafValues></_>
        <_>
          <internalNodes>
            0 -1 583 -1.0654617799445987e-03</internalNodes>
          <leafValues>
            -5.1590842008590698e-01 7.7900916337966919e-02</leafValues></_>
        <_>
          <internalNodes>
            0 -1 64 1.3592632021754980e-03</internalNodes>
          <leafValues>
            9.8609238862991333e-02 -4.1188547015190125e-01</leafValues></_>
        <_>
          <internalNodes>
            0 -1 171 1.0935874655842781e-02</internalNodes>
          <leafValues>
            9.4320639967918396e-02 -4.4362702965736389e-01</leafValues></_>
        <_>
          <internalNodes>
            0 -1 442 -2.1979212760925293e-03</internalNodes>
          <leafValues>
            3.7403562664985657e-01 -1.0089583694934845e-01</leafValues></_>
        <_>
          <internalNodes>
            0 -1 105 4.3727613985538483e-02</internalNodes>
          <leafValues>
            5.7380538433790207e-02 -6.3270342350006104e-01</leafValues></_>
        <_>
          <internalNodes>
            0 -1 358 -4.9527231603860855e-03</internalNodes>
          <leafValues>
            4.3512737751007080e-01 -1.0027061402797699e-01</leafValues></_>
        <_>
          <internalNodes>
            0 -1 389 -8.8802706450223923e-03</internalNodes>
          <leafValues>
            -8.0435669422149658e-01 5.5142201483249664e-02</leafValues></_>
        <_>
          <internalNodes>
            0 -1 607 9.7330566495656967e-04</internalNodes>
          <leafValues>
            -1.1812061071395874e-01 3.5535106062889099e-01</leafValues></_>
        <_>
          <internalNodes>
            0 -1 20 -2.5647701695561409e-03</internalNodes>
          <leafValues>
            -4.3212622404098511e-01 1.0218034684658051e-01</leafValues></_>
        <_>
          <internalNodes>
            0 -1 62 -4.0278367698192596e-02</internalNodes>
          <leafValues>
            -6.1907953023910522e-01 5.3742881864309311e-02</leafValues></_>
        <_>
          <internalNodes>
            0 -1 306 -3.2696309499442577e-03</internalNodes>
          <leafValues>
            -4.3350172042846680e-01 7.8119985759258270e-02</leafValues></_>
        <_>
          <internalNodes>
            0 -1 89 4.8554353415966034e-03</internalNodes>
          <leafValues>
            -1.4674888551235199e-01 2.5547739863395691e-01</leafValues></_>
        <_>
          <internalNodes>
            0 -1 645 3.4052518458338454e-05</internalNodes>
          <leafValues>
            -1.7281047999858856e-01 2.1630333364009857e-01</leafValues></_>
        <_>
          <internalNodes>
            0 -1 58 2.8048507869243622e-02</internalNodes>
          <leafValues>
            6.0639452189207077e-02 -5.5023205280303955e-01</leafValues></_>
        <_>
          <internalNodes>
            0 -1 414 5.3388969972729683e-03</internalNodes>
          <leafValues>
            4.9873936921358109e-02 -6.4041215181350708e-01</leafValues></_>
        <_>
          <internalNodes>
            0 -1 469 7.5788311660289764e-03</internalNodes>
          <leafValues>
            -1.5171831846237183e-01 2.4457889795303345e-01</leafValues></_>
        <_>
          <internalNodes>
            0 -1 338 4.6243797987699509e-02</internalNodes>
          <leafValues>
            -8.5832417011260986e-02 4.4633597135543823e-01</leafValues></_>
        <_>
          <internalNodes>
            0 -1 377 -2.8302244842052460e-02</internalNodes>
          <leafValues>
            3.9251643419265747e-01 -9.1095253825187683e-02</leafValues></_>
        <_>
          <internalNodes>
            0 -1 621 -1.2995564611628652e-04</internalNodes>
          <leafValues>
            2.7551937103271484e-01 -1.3830120861530304e-01</leafValues></_>
        <_>
          <internalNodes>
            0 -1 465 1.1378528550267220e-02</internalNodes>
          <leafValues>
            7.1252308785915375e-02 -5.5081653594970703e-01</leafValues></_>
        <_>
          <internalNodes>
            0 -1 137 -7.7870266977697611e-04</internalNodes>
          <leafValues>
            2.3663781583309174e-01 -1.5300373733043671e-01</leafValues></_></weakClassifiers></_>
    <!-- stage 14 -->
    <_>
      <maxWeakCount>29</maxWeakCount>
      <stageThreshold>-1.1596113443374634e+00</stageThreshold>
      <weakClassifiers>
        <_>
          <internalNodes>
            0 -1 413 -2.1695748437196016e-03</internalNodes>
          <leafValues>
            -5.6016600131988525e-01 5.8113206177949905e-02</leafValues></_>
        <_>
          <internalNodes>
            0 -1 376 3.0776355415582657e-03</internalNodes>
          <leafValues>
            1.2196332216262817e-01 -4.3696227669715881e-01</leafValues></_>
        <_>
          <internalNodes>
            0 -1 647 -3.7226913264021277e-04</internalNodes>
          <leafValues>
            -4.6922928094863892e-01 1.4375658333301544e-01</leafValues></_>
        <_>
          <internalNodes>
            0 -1 554 1.7735057044774294e-03</internalNodes>
          <leafValues>
            1.5856674313545227e-01 -4.0050309896469116e-01</leafValues></_>
        <_>
          <internalNodes>
            0 -1 280 2.7202896308153868e-04</internalNodes>
          <leafValues>
            1.1037176847457886e-01 -4.4379243254661560e-01</leafValues></_>
        <_>
          <internalNodes>
            0 -1 19 -1.1545255547389388e-03</internalNodes>
          <leafValues>
            -4.4444915652275085e-01 1.0873272269964218e-01</leafValues></_>
        <_>
          <internalNodes>
            0 -1 283 -6.7195352166891098e-03</internalNodes>
          <leafValues>
            3.0137914419174194e-01 -1.7980225384235382e-01</leafValues></_>
        <_>
          <internalNodes>
            0 -1 522 8.5041660349816084e-04</internalNodes>
          <leafValues>
            1.3402715325355530e-01 -3.7415137887001038e-01</leafValues></_>
        <_>
          <internalNodes>
            0 -1 23 2.6993887149728835e-04</internalNodes>
          <leafValues>
            1.0159856826066971e-01 -4.0820914506912231e-01</leafValues></_>
        <_>
          <internalNodes>
            0 -1 75 -4.4970971066504717e-04</internalNodes>
          <leafValues>
            -3.2417368888854980e-01 1.3475134968757629e-01</leafValues></_>
        <_>
          <internalNodes>
            0 -1 485 -3.0599348247051239e-02</internalNodes>
          <leafValues>
            3.2055467367172241e-01 -1.5253575146198273e-01</leafValues></_>
        <_>
          <internalNodes>
            0 -1 71 1.0381594765931368e-03</internalNodes>
          <leafValues>
            1.1864375323057175e-01 -4.0560933947563171e-01</leafValues></_>
        <_>
          <internalNodes>
            0 -1 658 -3.6576384445652366e-04</internalNodes>
          <leafValues>
            -3.9826440811157227e-01 9.4301119446754456e-02</leafValues></_>
        <_>
          <internalNodes>
            0 -1 131 -1.1315372586250305e-01</internalNodes>
          <leafValues>
            2.3508623242378235e-01 -1.8291382491588593e-01</leafValues></_>
        <_>
          <internalNodes>
            0 -1 630 -3.4943979699164629e-04</internalNodes>
          <leafValues>
            -3.5725736618041992e-01 1.2821629643440247e-01</leafValues></_>
        <_>
          <internalNodes>
            0 -1 628 3.7760366103611887e-04</internalNodes>
          <leafValues>
            1.6241809725761414e-01 -3.2608720660209656e-01</leafValues></_>
        <_>
          <internalNodes>
            0 -1 119 -2.8766637668013573e-02</internalNodes>
          <leafValues>
            2.7803447842597961e-01 -1.3661606609821320e-01</leafValues></_>
        <_>
          <internalNodes>
            0 -1 582 -3.0119564384222031e-02</internalNodes>
          <leafValues>
            6.8344140052795410e-01 -6.8442367017269135e-02</leafValues></_>
        <_>
          <internalNodes>
            0 -1 277 -6.6510071046650410e-03</internalNodes>
          <leafValues>
            3.2158234715461731e-01 -1.0876719653606415e-01</leafValues></_>
        <_>
          <internalNodes>
            0 -1 536 2.9863750096410513e-03</internalNodes>
          <leafValues>
            -1.2509158253669739e-01 3.2871249318122864e-01</leafValues></_>
        <_>
          <internalNodes>
            0 -1 534 -4.8476345837116241e-03</internalNodes>
          <leafValues>
            -7.2731542587280273e-01 6.7389398813247681e-02</leafValues></_>
        <_>
          <internalNodes>
            0 -1 520 -8.8934283703565598e-03</internalNodes>
          <leafValues>
            1.7815284430980682e-01 -2.0939831435680389e-01</leafValues></_>
        <_>
          <internalNodes>
            0 -1 631 -4.5496982056647539e-04</internalNodes>
          <leafValues>
            -3.0725380778312683e-01 1.2445448338985443e-01</leafValues></_>
        <_>
          <internalNodes>
            0 -1 369 2.6477507781237364e-03</internalNodes>
          <leafValues>
            9.3183256685733795e-02 -4.3886581063270569e-01</leafValues></_>
        <_>
          <internalNodes>
            0 -1 337 -2.3107065353542566e-03</internalNodes>
          <leafValues>
            -3.1655260920524597e-01 1.4427559077739716e-01</leafValues></_>
        <_>
          <internalNodes>
            0 -1 163 3.7726969458162785e-03</internalNodes>
          <leafValues>
            -1.1400434374809265e-01 3.9667615294456482e-01</leafValues></_>
        <_>
          <internalNodes>
            0 -1 385 7.9547334462404251e-03</internalNodes>
          <leafValues>
            4.5708481222391129e-02 -8.4651213884353638e-01</leafValues></_>
        <_>
          <internalNodes>
            0 -1 297 -5.5683841928839684e-03</internalNodes>
          <leafValues>
            -3.3342534303665161e-01 1.2038978934288025e-01</leafValues></_>
        <_>
          <internalNodes>
            0 -1 0 -6.9488747976720333e-04</internalNodes>
          <leafValues>
            -3.1132531166076660e-01 1.2094818800687790e-01</leafValues></_></weakClassifiers></_>
    <!-- stage 15 -->
    <_>
      <maxWeakCount>31</maxWeakCount>
      <stageThreshold>-1.0252513885498047e+00</stageThreshold>
      <weakClassifiers>
        <_>
          <internalNodes>
            0 -1 202 -3.1158562749624252e-02</internalNodes>
          <leafValues>
            3.2534930109977722e-01 -2.7258804440498352e-01</leafValues></_>
        <_>
          <internalNodes>
            0 -1 14 -1.1510768532752991e-01</internalNodes>
          <leafValues>
            2.8404840826988220e-01 -1.9175186753273010e-01</leafValues></_>
        <_>
          <internalNodes>
            0 -1 295 1.3179642846807837e-03</internalNodes>
          <leafValues>
            9.1787531971931458e-02 -4.9170345067977905e-01</leafValues></_>
        <_>
          <internalNodes>
            0 -1 519 5.9228263795375824e-02</internalNodes>
          <leafValues>
            -1.1197917908430099e-01 3.5828167200088501e-01</leafValues></_>
        <_>
          <internalNodes>
            0 -1 1 7.7298225369304419e-04</internalNodes>
          <leafValues>
            1.3010855019092560e-01 -3.1121692061424255e-01</leafValues></_>
        <_>
          <internalNodes>
            0 -1 356 -1.0781784355640411e-01</internalNodes>
          <leafValues>
            -5.0902336835861206e-01 7.2840996086597443e-02</leafValues></_>
        <_>
          <internalNodes>
            0 -1 85 -1.9681065168697387e-04</internalNodes>
          <leafValues>
            -2.8411182761192322e-01 1.4856435358524323e-01</leafValues></_>
        <_>
          <internalNodes>
            0 -1 86 4.9289537128061056e-04</internalNodes>
          <leafValues>
            9.8597891628742218e-02 -4.8968824744224548e-01</leafValues></_>
        <_>
          <internalNodes>
            0 -1 403 -5.1858369261026382e-03</internalNodes>
          <leafValues>
            3.6762806773185730e-01 -1.1452513188123703e-01</leafValues></_>
        <_>
          <internalNodes>
            0 -1 412 -1.1192667298018932e-02</internalNodes>
          <leafValues>
            1.9042022526264191e-01 -2.2062088549137115e-01</leafValues></_>
        <_>
          <internalNodes>
            0 -1 44 1.0822216048836708e-02</internalNodes>
          <leafValues>
            2.3930149152874947e-02 -5.9774738550186157e-01</leafValues></_>
        <_>
          <internalNodes>
            0 -1 248 7.8233325621113181e-04</internalNodes>
          <leafValues>
            -9.1909699141979218e-02 4.1867887973785400e-01</leafValues></_>
        <_>
          <internalNodes>
            0 -1 557 -7.6079815626144409e-02</internalNodes>
          <leafValues>
            -5.2590399980545044e-01 8.0543160438537598e-02</leafValues></_>
        <_>
          <internalNodes>
            0 -1 407 1.4760047197341919e-03</internalNodes>
          <leafValues>
            6.6509082913398743e-02 -4.5392695069313049e-01</leafValues></_>
        <_>
          <internalNodes>
            0 -1 237 1.4045586809515953e-02</internalNodes>
          <leafValues>
            -1.1467463523149490e-01 3.3291861414909363e-01</leafValues></_>
        <_>
          <internalNodes>
            0 -1 7 -4.1035797446966171e-02</internalNodes>
          <leafValues>
            -5.2517849206924438e-01 7.4852369725704193e-02</leafValues></_>
        <_>
          <internalNodes>
            0 -1 158 2.3770727217197418e-02</internalNodes>
          <leafValues>
            -6.9683074951171875e-02 7.1825152635574341e-01</leafValues></_>
        <_>
          <internalNodes>
            0 -1 57 -2.5990535505115986e-03</internalNodes>
          <leafValues>
            -4.1839569807052612e-01 9.2252142727375031e-02</leafValues></_>
        <_>
          <internalNodes>
            0 -1 294 2.0963305607438087e-02</internalNodes>
          <leafValues>
            7.2784833610057831e-02 -4.8705744743347168e-01</leafValues></_>
        <_>
          <internalNodes>
            0 -1 266 -1.0342419147491455e-02</internalNodes>
          <leafValues>
            3.2242685556411743e-01 -1.3178463280200958e-01</leafValues></_>
        <_>
          <internalNodes>
            0 -1 368 1.3020586967468262e-01</internalNodes>
          <leafValues>
            -9.2699803411960602e-02 4.2166808247566223e-01</leafValues></_>
        <_>
          <internalNodes>
            0 -1 490 -3.8841918110847473e-02</internalNodes>
          <leafValues>
            4.0531173348426819e-01 -1.0867054760456085e-01</leafValues></_>
        <_>
          <internalNodes>
            0 -1 118 -2.9084099456667900e-02</internalNodes>
          <leafValues>
            2.1085500717163086e-01 -1.8721798062324524e-01</leafValues></_>
        <_>
          <internalNodes>
            0 -1 578 -6.8819674197584391e-05</internalNodes>
          <leafValues>
            2.1492022275924683e-01 -1.9156394898891449e-01</leafValues></_>
        <_>
          <internalNodes>
            0 -1 627 -8.0811447696760297e-04</internalNodes>
          <leafValues>
            -6.0643172264099121e-01 7.0106692612171173e-02</leafValues></_>
        <_>
          <internalNodes>
            0 -1 93 2.4213426513597369e-04</internalNodes>
          <leafValues>
            9.0749278664588928e-02 -3.6522549390792847e-01</leafValues></_>
        <_>
          <internalNodes>
            0 -1 91 -2.1854665828868747e-04</internalNodes>
          <leafValues>
            -2.6154887676239014e-01 1.8471387028694153e-01</leafValues></_>
        <_>
          <internalNodes>
            0 -1 348 -2.1267924457788467e-03</internalNodes>
          <leafValues>
            4.8861715197563171e-01 -8.2461908459663391e-02</leafValues></_>
        <_>
          <internalNodes>
            0 -1 436 -2.1162643097341061e-03</internalNodes>
          <leafValues>
            -6.1567550897598267e-01 6.8640969693660736e-02</leafValues></_>
        <_>
          <internalNodes>
            0 -1 54 -2.7979915030300617e-03</internalNodes>
          <leafValues>
            3.4180152416229248e-01 -1.1063552647829056e-01</leafValues></_>
        <_>
          <internalNodes>
            0 -1 610 -8.9871492236852646e-03</internalNodes>
          <leafValues>
            4.5416623353958130e-01 -8.8737726211547852e-02</leafValues></_></weakClassifiers></_>
    <!-- stage 16 -->
    <_>
      <maxWeakCount>30</maxWeakCount>
      <stageThreshold>-9.1994625329971313e-01</stageThreshold>
      <weakClassifiers>
        <_>
          <internalNodes>
            0 -1 486 -6.7248502746224403e-03</internalNodes>
          <leafValues>
            1.7512691020965576e-01 -3.2482826709747314e-01</leafValues></_>
        <_>
          <internalNodes>
            0 -1 400 -3.1281914561986923e-03</internalNodes>
          <leafValues>
            2.3277634382247925e-01 -2.0886710286140442e-01</leafValues></_>
        <_>
          <internalNodes>
            0 -1 34 -3.5607196390628815e-02</internalNodes>
          <leafValues>
            2.4275499582290649e-01 -2.1794295310974121e-01</leafValues></_>
        <_>
          <internalNodes>
            0 -1 558 2.1631570532917976e-02</internalNodes>
          <leafValues>
            -1.7346809804439545e-01 2.5058031082153320e-01</leafValues></_>
        <_>
          <internalNodes>
            0 -1 453 -3.4745784942060709e-03</internalNodes>
          <leafValues>
            4.8048585653305054e-01 -5.4222147911787033e-02</leafValues></_>
        <_>
          <internalNodes>
            0 -1 453 2.4651798885315657e-03</internalNodes>
          <leafValues>
            -1.3362528383731842e-01 3.5669681429862976e-01</leafValues></_>
        <_>
          <internalNodes>
            0 -1 204 3.6722075310535729e-04</internalNodes>
          <leafValues>
            -1.9047045707702637e-01 2.3451240360736847e-01</leafValues></_>
        <_>
          <internalNodes>
            0 -1 439 -2.8543486259877682e-03</internalNodes>
          <leafValues>
            2.4925525486469269e-01 -1.5873934328556061e-01</leafValues></_>
        <_>
          <internalNodes>
            0 -1 50 -2.5738799571990967e-01</internalNodes>
          <leafValues>
            -9.7480118274688721e-01 7.9185657203197479e-02</leafValues></_>
        <_>
          <internalNodes>
            0 -1 575 5.1201181486248970e-04</internalNodes>
          <leafValues>
            -1.9354215264320374e-01 1.7887717485427856e-01</leafValues></_>
        <_>
          <internalNodes>
            0 -1 81 7.4030339717864990e-02</internalNodes>
          <leafValues>
            1.0199507325887680e-01 -3.7713900208473206e-01</leafValues></_>
        <_>
          <internalNodes>
            0 -1 434 2.2669672966003418e-02</internalNodes>
          <leafValues>
            -1.3075926899909973e-01 3.8031768798828125e-01</leafValues></_>
        <_>
          <internalNodes>
            0 -1 388 6.4765168353915215e-03</internalNodes>
          <leafValues>
            -7.7273972332477570e-02 3.8165479898452759e-01</leafValues></_>
        <_>
          <internalNodes>
            0 -1 523 -3.6537926644086838e-03</internalNodes>
          <leafValues>
            -5.2932465076446533e-01 6.9624021649360657e-02</leafValues></_>
        <_>
          <internalNodes>
            0 -1 432 -9.2956569278612733e-04</internalNodes>
          <leafValues>
            2.4773992598056793e-01 -1.5602919459342957e-01</leafValues></_>
        <_>
          <internalNodes>
            0 -1 213 -1.1202806490473449e-05</internalNodes>
          <leafValues>
            1.6488760709762573e-01 -2.3094035685062408e-01</leafValues></_>
        <_>
          <internalNodes>
            0 -1 612 4.9959012540057302e-04</internalNodes>
          <leafValues>
            -2.6497229933738708e-01 1.3733595609664917e-01</leafValues></_>
        <_>
          <internalNodes>
            0 -1 590 1.1623265454545617e-03</internalNodes>
          <leafValues>
            3.3139619976282120e-02 -6.5019828081130981e-01</leafValues></_>
        <_>
          <internalNodes>
            0 -1 535 1.9669621251523495e-03</internalNodes>
          <leafValues>
            -1.2272991985082626e-01 2.8232288360595703e-01</leafValues></_>
        <_>
          <internalNodes>
            0 -1 394 3.1123638618737459e-03</internalNodes>
          <leafValues>
            -6.2515787780284882e-02 5.2778744697570801e-01</leafValues></_>
        <_>
          <internalNodes>
            0 -1 154 1.5688128769397736e-02</internalNodes>
          <leafValues>
            -9.4155326485633850e-02 3.6795446276664734e-01</leafValues></_>
        <_>
          <internalNodes>
            0 -1 379 2.1724086254835129e-03</internalNodes>
          <leafValues>
            5.0863701850175858e-02 -6.9445973634719849e-01</leafValues></_>
        <_>
          <internalNodes>
            0 -1 562 -8.9364238083362579e-03</internalNodes>
          <leafValues>
            3.9322397112846375e-01 -9.3409754335880280e-02</leafValues></_>
        <_>
          <internalNodes>
            0 -1 282 2.1198601461946964e-03</internalNodes>
          <leafValues>
            -1.4540126919746399e-01 2.4357652664184570e-01</leafValues></_>
        <_>
          <internalNodes>
            0 -1 333 3.0677774921059608e-03</internalNodes>
          <leafValues>
            8.3366557955741882e-02 -4.6954146027565002e-01</leafValues></_>
        <_>
          <internalNodes>
            0 -1 135 2.6350542902946472e-03</internalNodes>
          <leafValues>
            -1.5269860625267029e-01 2.6861885190010071e-01</leafValues></_>
        <_>
          <internalNodes>
            0 -1 467 -2.0727302879095078e-02</internalNodes>
          <leafValues>
            2.9638987779617310e-01 -1.2590560317039490e-01</leafValues></_>
        <_>
          <internalNodes>
            0 -1 378 6.9332844577729702e-03</internalNodes>
          <leafValues>
            -1.7902173101902008e-01 2.3077991604804993e-01</leafValues></_>
        <_>
          <internalNodes>
            0 -1 596 4.6844687312841415e-03</internalNodes>
          <leafValues>
            -1.5590719878673553e-01 2.4535632133483887e-01</leafValues></_>
        <_>
          <internalNodes>
            0 -1 141 7.2112481575459242e-04</internalNodes>
          <leafValues>
            -1.7975749075412750e-01 2.0429128408432007e-01</leafValues></_></weakClassifiers></_>
    <!-- stage 17 -->
    <_>
      <maxWeakCount>35</maxWeakCount>
      <stageThreshold>-1.0083888769149780e+00</stageThreshold>
      <weakClassifiers>
        <_>
          <internalNodes>
            0 -1 664 -1.3048935215920210e-04</internalNodes>
          <leafValues>
            -5.0642675161361694e-01 2.8208745643496513e-03</leafValues></_>
        <_>
          <internalNodes>
            0 -1 600 6.1957985162734985e-02</internalNodes>
          <leafValues>
            -1.6811017692089081e-01 2.6060467958450317e-01</leafValues></_>
        <_>
          <internalNodes>
            0 -1 334 2.1067182533442974e-03</internalNodes>
          <leafValues>
            1.0025141388177872e-01 -4.1356784105300903e-01</leafValues></_>
        <_>
          <internalNodes>
            0 -1 214 -5.8480286970734596e-03</internalNodes>
          <leafValues>
            -3.2250186800956726e-01 1.5242055058479309e-01</leafValues></_>
        <_>
          <internalNodes>
            0 -1 405 -4.5832497999072075e-03</internalNodes>
          <leafValues>
            3.2787218689918518e-01 -1.0733753442764282e-01</leafValues></_>
        <_>
          <internalNodes>
            0 -1 245 4.8394296318292618e-03</internalNodes>
          <leafValues>
            -1.5802769362926483e-01 3.2402059435844421e-01</leafValues></_>
        <_>
          <internalNodes>
            0 -1 109 2.6143444702029228e-03</internalNodes>
          <leafValues>
            1.0847160220146179e-01 -4.5337438583374023e-01</leafValues></_>
        <_>
          <internalNodes>
            0 -1 104 -7.2123734280467033e-03</internalNodes>
          <leafValues>
            1.9774027168750763e-01 -1.7958132922649384e-01</leafValues></_>
        <_>
          <internalNodes>
            0 -1 329 -2.8950285911560059e-01</internalNodes>
          <leafValues>
            6.2398254871368408e-01 -6.3304476439952850e-02</leafValues></_>
        <_>
          <internalNodes>
            0 -1 126 -1.5410344349220395e-04</internalNodes>
          <leafValues>
            1.5506383776664734e-01 -2.4758976697921753e-01</leafValues></_>
        <_>
          <internalNodes>
            0 -1 669 -4.7087031998671591e-04</internalNodes>
          <leafValues>
            2.2398431599140167e-01 -1.8593275547027588e-01</leafValues></_>
        <_>
          <internalNodes>
            0 -1 258 1.5574005246162415e-01</internalNodes>
          <leafValues>
            -1.3643495738506317e-01 3.1355679035186768e-01</leafValues></_>
        <_>
          <internalNodes>
            0 -1 314 1.4295683242380619e-02</internalNodes>
          <leafValues>
            -1.4909106492996216e-01 3.1584763526916504e-01</leafValues></_>
        <_>
          <internalNodes>
            0 -1 482 1.0346203343942761e-03</internalNodes>
          <leafValues>
            -6.4675599336624146e-02 4.3177562952041626e-01</leafValues></_>
        <_>
          <internalNodes>
            0 -1 13 -1.6802243888378143e-02</internalNodes>
          <leafValues>
            3.0789089202880859e-01 -1.1275265365839005e-01</leafValues></_>
        <_>
          <internalNodes>
            0 -1 120 4.2466324521228671e-04</internalNodes>
          <leafValues>
            -1.6050505638122559e-01 2.6837041974067688e-01</leafValues></_>
        <_>
          <internalNodes>
            0 -1 663 3.0444495496340096e-04</internalNodes>
          <leafValues>
            1.1136720329523087e-01 -3.0183514952659607e-01</leafValues></_>
        <_>
          <internalNodes>
            0 -1 91 2.3229242651723325e-04</internalNodes>
          <leafValues>
            1.0194630175828934e-01 -3.3787593245506287e-01</leafValues></_>
        <_>
          <internalNodes>
            0 -1 625 -8.7866629473865032e-04</internalNodes>
          <leafValues>
            2.6138320565223694e-01 -1.2887425720691681e-01</leafValues></_>
        <_>
          <internalNodes>
            0 -1 138 -1.6606866847723722e-04</internalNodes>
          <leafValues>
            -2.2466219961643219e-01 1.5814279019832611e-01</leafValues></_>
        <_>
          <internalNodes>
            0 -1 46 -1.6252517700195313e-02</internalNodes>
          <leafValues>
            2.6506507396697998e-01 -1.6830433905124664e-01</leafValues></_>
        <_>
          <internalNodes>
            0 -1 450 4.9493489786982536e-03</internalNodes>
          <leafValues>
            -1.2467018514871597e-01 2.8029850125312805e-01</leafValues></_>
        <_>
          <internalNodes>
            0 -1 586 -9.8725606221705675e-04</internalNodes>
          <leafValues>
            -7.2051674127578735e-01 5.4591033607721329e-02</leafValues></_>
        <_>
          <internalNodes>
            0 -1 592 1.0265237651765347e-03</internalNodes>
          <leafValues>
            1.3935717940330505e-01 -2.3357377946376801e-01</leafValues></_>
        <_>
          <internalNodes>
            0 -1 12 -1.9768266938626766e-03</internalNodes>
          <leafValues>
            2.4576164782047272e-01 -1.4139488339424133e-01</leafValues></_>
        <_>
          <internalNodes>
            0 -1 164 -1.0061489045619965e-01</internalNodes>
          <leafValues>
            2.4408923089504242e-01 -1.4975360035896301e-01</leafValues></_>
        <_>
          <internalNodes>
            0 -1 636 3.1100763590075076e-04</internalNodes>
          <leafValues>
            1.3196563720703125e-01 -2.5165799260139465e-01</leafValues></_>
        <_>
          <internalNodes>
            0 -1 226 -6.3049970194697380e-03</internalNodes>
          <leafValues>
            3.0412301421165466e-01 -1.2685342133045197e-01</leafValues></_>
        <_>
          <internalNodes>
            0 -1 228 -1.9514678046107292e-02</internalNodes>
          <leafValues>
            -5.4117262363433838e-01 7.9585075378417969e-02</leafValues></_>
        <_>
          <internalNodes>
            0 -1 509 7.8835189342498779e-03</internalNodes>
          <leafValues>
            -1.2333427369594574e-01 3.0971527099609375e-01</leafValues></_>
        <_>
          <internalNodes>
            0 -1 70 -2.9979681130498648e-04</internalNodes>
          <leafValues>
            -2.0119386911392212e-01 1.8751803040504456e-01</leafValues></_>
        <_>
          <internalNodes>
            0 -1 123 -3.2957397401332855e-02</internalNodes>
          <leafValues>
            -8.0977571010589600e-01 3.1292047351598740e-02</leafValues></_>
        <_>
          <internalNodes>
            0 -1 480 2.5260616093873978e-03</internalNodes>
          <leafValues>
            -8.9266188442707062e-02 4.1463014483451843e-01</leafValues></_>
        <_>
          <internalNodes>
            0 -1 317 4.8933515790849924e-04</internalNodes>
          <leafValues>
            8.4216780960559845e-02 -4.3513908982276917e-01</leafValues></_>
        <_>
          <internalNodes>
            0 -1 244 -1.7641879385337234e-03</internalNodes>
          <leafValues>
            3.2834541797637939e-01 -1.0229845345020294e-01</leafValues></_></weakClassifiers></_>
    <!-- stage 18 -->
    <_>
      <maxWeakCount>41</maxWeakCount>
      <stageThreshold>-1.0281387567520142e+00</stageThreshold>
      <weakClassifiers>
        <_>
          <internalNodes>
            0 -1 506 -8.1748124212026596e-03</internalNodes>
          <leafValues>
            2.1142856776714325e-01 -2.3712947964668274e-01</leafValues></_>
        <_>
          <internalNodes>
            0 -1 17 -1.4262428879737854e-01</internalNodes>
          <leafValues>
            1.8222351372241974e-01 -2.1940070390701294e-01</leafValues></_>
        <_>
          <internalNodes>
            0 -1 601 -1.9266925519332290e-03</internalNodes>
          <leafValues>
            2.2718110680580139e-01 -1.6385328769683838e-01</leafValues></_>
        <_>
          <internalNodes>
            0 -1 35 -2.8486138582229614e-01</internalNodes>
          <leafValues>
            3.6229756474494934e-01 -1.3876830041408539e-01</leafValues></_>
        <_>
          <internalNodes>
            0 -1 331 6.1975000426173210e-04</internalNodes>
          <leafValues>
            1.4977402985095978e-01 -2.9091086983680725e-01</leafValues></_>
        <_>
          <internalNodes>
            0 -1 312 4.2336964979767799e-03</internalNodes>
          <leafValues>
            -4.8322353512048721e-02 5.3159481287002563e-01</leafValues></_>
        <_>
          <internalNodes>
            0 -1 296 -1.7338699763058685e-05</internalNodes>
          <leafValues>
            1.0324925929307938e-01 -3.0498296022415161e-01</leafValues></_>
        <_>
          <internalNodes>
            0 -1 115 -6.5865129232406616e-02</internalNodes>
          <leafValues>
            3.6173033714294434e-01 -9.8358586430549622e-02</leafValues></_>
        <_>
          <internalNodes>
            0 -1 279 4.7083711251616478e-03</internalNodes>
          <leafValues>
            -1.4126616716384888e-01 2.5383657217025757e-01</leafValues></_>
        <_>
          <internalNodes>
            0 -1 478 4.3325871229171753e-03</internalNodes>
          <leafValues>
            -1.3981981575489044e-01 2.5687202811241150e-01</leafValues></_>
        <_>
          <internalNodes>
            0 -1 73 -2.6212861761450768e-02</internalNodes>
          <leafValues>
            -4.1109645366668701e-01 1.1700462549924850e-01</leafValues></_>
        <_>
          <internalNodes>
            0 -1 662 -2.6652781525626779e-04</internalNodes>
          <leafValues>
            -3.8613694906234741e-01 7.2553306818008423e-02</leafValues></_>
        <_>
          <internalNodes>
            0 -1 76 1.0984554886817932e-01</internalNodes>
          <leafValues>
            7.1804098784923553e-02 -4.6263757348060608e-01</leafValues></_>
        <_>
          <internalNodes>
            0 -1 648 -2.1194093278609216e-04</internalNodes>
          <leafValues>
            2.2529911994934082e-01 -1.6631148755550385e-01</leafValues></_>
        <_>
          <internalNodes>
            0 -1 355 9.4164013862609863e-03</internalNodes>
          <leafValues>
            -8.4811396896839142e-02 4.8874086141586304e-01</leafValues></_>
        <_>
          <internalNodes>
            0 -1 620 4.1326843202114105e-03</internalNodes>
          <leafValues>
            -1.5877175331115723e-01 2.1991921961307526e-01</leafValues></_>
        <_>
          <internalNodes>
            0 -1 386 -1.0575551539659500e-02</internalNodes>
          <leafValues>
            -5.8135426044464111e-01 7.1041695773601532e-02</leafValues></_>
        <_>
          <internalNodes>
            0 -1 2 7.9473946243524551e-03</internalNodes>
          <leafValues>
            5.0903562456369400e-02 -5.2826064825057983e-01</leafValues></_>
        <_>
          <internalNodes>
            0 -1 641 3.3249943517148495e-03</internalNodes>
          <leafValues>
            9.1320626437664032e-02 -3.2582738995552063e-01</leafValues></_>
        <_>
          <internalNodes>
            0 -1 594 9.3918889760971069e-03</internalNodes>
          <leafValues>
            -1.0151162743568420e-01 3.2256910204887390e-01</leafValues></_>
        <_>
          <internalNodes>
            0 -1 471 2.4163614958524704e-02</internalNodes>
          <leafValues>
            -1.1776611208915710e-01 3.1091085076332092e-01</leafValues></_>
        <_>
          <internalNodes>
            0 -1 327 -4.1492669843137264e-03</internalNodes>
          <leafValues>
            2.5016391277313232e-01 -1.5265336632728577e-01</leafValues></_>
        <_>
          <internalNodes>
            0 -1 22 1.3672686181962490e-03</internalNodes>
          <leafValues>
            -1.5531198680400848e-01 2.1997693181037903e-01</leafValues></_>
        <_>
          <internalNodes>
            0 -1 396 2.6531382463872433e-03</internalNodes>
          <leafValues>
            -9.2206858098506927e-02 4.1345003247261047e-01</leafValues></_>
        <_>
          <internalNodes>
            0 -1 251 2.7221282944083214e-03</internalNodes>
          <leafValues>
            8.9578472077846527e-02 -3.9602184295654297e-01</leafValues></_>
        <_>
          <internalNodes>
            0 -1 398 4.8795823007822037e-02</internalNodes>
          <leafValues>
            4.5701943337917328e-02 -6.9210672378540039e-01</leafValues></_>
        <_>
          <internalNodes>
            0 -1 234 -4.2149769142270088e-03</internalNodes>
          <leafValues>
            1.7131495475769043e-01 -1.8696430325508118e-01</leafValues></_>
        <_>
          <internalNodes>
            0 -1 108 3.4824326634407043e-02</internalNodes>
          <leafValues>
            6.0255561023950577e-02 -5.4671543836593628e-01</leafValues></_>
        <_>
          <internalNodes>
            0 -1 665 -1.9326524343341589e-03</internalNodes>
          <leafValues>
            -3.4145158529281616e-01 8.6663261055946350e-02</leafValues></_>
        <_>
          <internalNodes>
            0 -1 278 -3.6792485043406487e-03</internalNodes>
          <leafValues>
            4.5577248930931091e-01 -7.2900399565696716e-02</leafValues></_>
        <_>
          <internalNodes>
            0 -1 90 -4.0023948531597853e-04</internalNodes>
          <leafValues>
            -3.3903604745864868e-01 9.9228695034980774e-02</leafValues></_>
        <_>
          <internalNodes>
            0 -1 49 -1.0219916701316833e-02</internalNodes>
          <leafValues>
            3.6100301146507263e-01 -9.3662865459918976e-02</leafValues></_>
        <_>
          <internalNodes>
            0 -1 45 9.9497716873884201e-03</internalNodes>
          <leafValues>
            -1.0643547773361206e-01 3.5779494047164917e-01</leafValues></_>
        <_>
          <internalNodes>
            0 -1 63 1.7816046020016074e-03</internalNodes>
          <leafValues>
            7.2210244834423065e-02 -4.7227558493614197e-01</leafValues></_>
        <_>
          <internalNodes>
            0 -1 475 1.8770109163597226e-03</internalNodes>
          <leafValues>
            -1.5447340905666351e-01 1.9832788407802582e-01</leafValues></_>
        <_>
          <internalNodes>
            0 -1 217 -6.3923224806785583e-03</internalNodes>
          <leafValues>
            2.0518022775650024e-01 -1.4807552099227905e-01</leafValues></_>
        <_>
          <internalNodes>
            0 -1 325 -3.3502001315355301e-04</internalNodes>
          <leafValues>
            2.2450430691242218e-01 -1.3956636190414429e-01</leafValues></_>
        <_>
          <internalNodes>
            0 -1 560 2.2459745407104492e-01</internalNodes>
          <leafValues>
            3.6505647003650665e-02 -8.6678248643875122e-01</leafValues></_>
        <_>
          <internalNodes>
            0 -1 627 -2.5504842051304877e-04</internalNodes>
          <leafValues>
            -3.5178980231285095e-01 7.5515016913414001e-02</leafValues></_>
        <_>
          <internalNodes>
            0 -1 401 -3.3433679491281509e-02</internalNodes>
          <leafValues>
            1.6875205934047699e-01 -1.8010544776916504e-01</leafValues></_>
        <_>
          <internalNodes>
            0 -1 98 -2.2132268350105733e-04</internalNodes>
          <leafValues>
            -3.1698721647262573e-01 9.7178876399993896e-02</leafValues></_></weakClassifiers></_>
    <!-- stage 19 -->
    <_>
      <maxWeakCount>45</maxWeakCount>
      <stageThreshold>-1.0236670970916748e+00</stageThreshold>
      <weakClassifiers>
        <_>
          <internalNodes>
            0 -1 579 -1.1568731628358364e-02</internalNodes>
          <leafValues>
            1.6321243345737457e-01 -3.0821254849433899e-01</leafValues></_>
        <_>
          <internalNodes>
            0 -1 307 -4.9891415983438492e-03</internalNodes>
          <leafValues>
            2.3510079085826874e-01 -1.6203685104846954e-01</leafValues></_>
        <_>
          <internalNodes>
            0 -1 447 1.2831090018153191e-02</internalNodes>
          <leafValues>
            -2.0867839455604553e-01 1.5313124656677246e-01</leafValues></_>
        <_>
          <internalNodes>
            0 -1 9 -2.8152501583099365e-01</internalNodes>
          <leafValues>
            -7.3148667812347412e-01 4.3644838035106659e-02</leafValues></_>
        <_>
          <internalNodes>
            0 -1 419 4.0747663006186485e-03</internalNodes>
          <leafValues>
            8.3035767078399658e-02 -4.2205423116683960e-01</leafValues></_>
        <_>
          <internalNodes>
            0 -1 415 -2.4409396573901176e-03</internalNodes>
          <leafValues>
            -2.0780093967914581e-01 1.4739038050174713e-01</leafValues></_>
        <_>
          <internalNodes>
            0 -1 47 -1.0844465345144272e-02</internalNodes>
          <leafValues>
            2.0891098678112030e-01 -1.7156004905700684e-01</leafValues></_>
        <_>
          <internalNodes>
            0 -1 303 1.5284955501556396e-02</internalNodes>
          <leafValues>
            -6.9737449288368225e-02 4.7240918874740601e-01</leafValues></_>
        <_>
          <internalNodes>
            0 -1 196 5.6682969443500042e-04</internalNodes>
          <leafValues>
            -1.5993720293045044e-01 1.8978530168533325e-01</leafValues></_>
        <_>
          <internalNodes>
            0 -1 97 1.5623556100763381e-04</internalNodes>
          <leafValues>
            8.8282965123653412e-02 -3.4953492879867554e-01</leafValues></_>
        <_>
          <internalNodes>
            0 -1 39 3.2489173114299774e-02</internalNodes>
          <leafValues>
            5.7257369160652161e-02 -3.7946081161499023e-01</leafValues></_>
        <_>
          <internalNodes>
            0 -1 619 -1.0953475430142134e-04</internalNodes>
          <leafValues>
            1.8071347475051880e-01 -1.6124829649925232e-01</leafValues></_>
        <_>
          <internalNodes>
            0 -1 423 -1.4717144891619682e-02</internalNodes>
          <leafValues>
            -7.0760399103164673e-01 2.6319719851016998e-02</leafValues></_>
        <_>
          <internalNodes>
            0 -1 500 -8.6962163913995028e-04</internalNodes>
          <leafValues>
            1.9567586481571198e-01 -1.8819138407707214e-01</leafValues></_>
        <_>
          <internalNodes>
            0 -1 43 -3.2394037116318941e-03</internalNodes>
          <leafValues>
            1.9372162222862244e-01 -1.5117378532886505e-01</leafValues></_>
        <_>
          <internalNodes>
            0 -1 576 8.4515265189111233e-04</internalNodes>
          <leafValues>
            4.8074740916490555e-02 -4.6901997923851013e-01</leafValues></_>
        <_>
          <internalNodes>
            0 -1 48 -2.3661458399146795e-03</internalNodes>
          <leafValues>
            2.1823331713676453e-01 -1.2767603993415833e-01</leafValues></_>
        <_>
          <internalNodes>
            0 -1 74 -2.1925638429820538e-04</internalNodes>
          <leafValues>
            -2.2539289295673370e-01 1.3267779350280762e-01</leafValues></_>
        <_>
          <internalNodes>
            0 -1 82 7.0701251388527453e-05</internalNodes>
          <leafValues>
            -1.6005600988864899e-01 1.8236801028251648e-01</leafValues></_>
        <_>
          <internalNodes>
            0 -1 666 -5.3641763515770435e-03</internalNodes>
          <leafValues>
            -6.1422425508499146e-01 5.7636316865682602e-02</leafValues></_>
        <_>
          <internalNodes>
            0 -1 617 2.6986397802829742e-02</internalNodes>
          <leafValues>
            -6.2452223151922226e-02 4.8531624674797058e-01</leafValues></_>
        <_>
          <internalNodes>
            0 -1 441 -1.9520873902365565e-03</internalNodes>
          <leafValues>
            3.2808902859687805e-01 -9.0824961662292480e-02</leafValues></_>
        <_>
          <internalNodes>
            0 -1 156 7.3469649069011211e-03</internalNodes>
          <leafValues>
            -9.0412445366382599e-02 3.8295876979827881e-01</leafValues></_>
        <_>
          <internalNodes>
            0 -1 10 -6.4073801040649414e-02</internalNodes>
          <leafValues>
            -6.9623106718063354e-01 5.0078663975000381e-02</leafValues></_>
        <_>
          <internalNodes>
            0 -1 209 -5.9864873765036464e-04</internalNodes>
          <leafValues>
            1.1491673439741135e-01 -2.5488939881324768e-01</leafValues></_>
        <_>
          <internalNodes>
            0 -1 211 -1.5064949169754982e-02</internalNodes>
          <leafValues>
            -4.1474154591560364e-01 7.5582362711429596e-02</leafValues></_>
        <_>
          <internalNodes>
            0 -1 566 3.1271909829229116e-03</internalNodes>
          <leafValues>
            -9.2130936682224274e-02 3.1575965881347656e-01</leafValues></_>
        <_>
          <internalNodes>
            0 -1 223 -2.6119987014681101e-03</internalNodes>
          <leafValues>
            -3.8516628742218018e-01 7.6132230460643768e-02</leafValues></_>
        <_>
          <internalNodes>
            0 -1 259 -1.4140164852142334e-01</internalNodes>
          <leafValues>
            3.7044423818588257e-01 -1.0460275411605835e-01</leafValues></_>
        <_>
          <internalNodes>
            0 -1 254 1.6169257462024689e-02</internalNodes>
          <leafValues>
            -1.1172807216644287e-01 2.7608764171600342e-01</leafValues></_>
        <_>
          <internalNodes>
            0 -1 72 7.6350709423422813e-04</internalNodes>
          <leafValues>
            9.2924654483795166e-02 -3.6299833655357361e-01</leafValues></_>
        <_>
          <internalNodes>
            0 -1 80 2.6091266423463821e-02</internalNodes>
          <leafValues>
            -9.5936954021453857e-02 3.5286685824394226e-01</leafValues></_>
        <_>
          <internalNodes>
            0 -1 222 -4.0411362424492836e-03</internalNodes>
          <leafValues>
            1.9198338687419891e-01 -1.9769674539566040e-01</leafValues></_>
        <_>
          <internalNodes>
            0 -1 362 -1.4916731044650078e-02</internalNodes>
          <leafValues>
            3.9406764507293701e-01 -7.8317880630493164e-02</leafValues></_>
        <_>
          <internalNodes>
            0 -1 206 1.9432553090155125e-03</internalNodes>
          <leafValues>
            -8.8033258914947510e-02 3.7066677212715149e-01</leafValues></_>
        <_>
          <internalNodes>
            0 -1 287 1.8373779952526093e-02</internalNodes>
          <leafValues>
            -7.0269390940666199e-02 4.3915736675262451e-01</leafValues></_>
        <_>
          <internalNodes>
            0 -1 25 -1.1916077695786953e-02</internalNodes>
          <leafValues>
            -4.3046998977661133e-01 7.5378596782684326e-02</leafValues></_>
        <_>
          <internalNodes>
            0 -1 567 1.9867204129695892e-02</internalNodes>
          <leafValues>
            -8.3543084561824799e-02 3.7307882308959961e-01</leafValues></_>
        <_>
          <internalNodes>
            0 -1 458 -1.7683132318779826e-03</internalNodes>
          <leafValues>
            -3.1699246168136597e-01 9.2394731938838959e-02</leafValues></_>
        <_>
          <internalNodes>
            0 -1 139 -1.9838046282529831e-02</internalNodes>
          <leafValues>
            -6.0291010141372681e-01 4.9319960176944733e-02</leafValues></_>
        <_>
          <internalNodes>
            0 -1 320 -2.0470942836254835e-03</internalNodes>
          <leafValues>
            1.8675197660923004e-01 -1.7447678744792938e-01</leafValues></_>
        <_>
          <internalNodes>
            0 -1 653 6.5377727150917053e-04</internalNodes>
          <leafValues>
            8.0330736935138702e-02 -3.8909289240837097e-01</leafValues></_>
        <_>
          <internalNodes>
            0 -1 539 3.9923461154103279e-03</internalNodes>
          <leafValues>
            -1.0276522487401962e-01 3.2890155911445618e-01</leafValues></_>
        <_>
          <internalNodes>
